#pragma once
#include <cstdarg>
namespace Eloquent {
    namespace ML {
        namespace Port {
            class RandomForest {
                public:
                    /**
                    * Predict class for features vector
                    */
                    int predict(float *x) {
                        uint8_t votes[2] = { 0 };
                        // tree #1
                        if (x[11] <= 0.3800000101327896) {
                            if (x[1] <= 4.650000095367432) {
                                if (x[9] <= -0.3499999940395355) {
                                    if (x[4] <= 0.05000000074505806) {
                                        votes[0] += 1;
                                    }

                                    else {
                                        votes[1] += 1;
                                    }
                                }

                                else {
                                    if (x[8] <= -2.7600000500679016) {
                                        votes[1] += 1;
                                    }

                                    else {
                                        votes[0] += 1;
                                    }
                                }
                            }

                            else {
                                if (x[12] <= -1.1299999952316284) {
                                    votes[0] += 1;
                                }

                                else {
                                    if (x[15] <= 0.2800000011920929) {
                                        if (x[14] <= 1.1099999994039536) {
                                            votes[1] += 1;
                                        }

                                        else {
                                            votes[0] += 1;
                                        }
                                    }

                                    else {
                                        votes[0] += 1;
                                    }
                                }
                            }
                        }

                        else {
                            votes[0] += 1;
                        }

                        // tree #2
                        if (x[6] <= 4.304999828338623) {
                            if (x[17] <= 0.32999999821186066) {
                                votes[0] += 1;
                            }

                            else {
                                if (x[15] <= 0.4350000023841858) {
                                    votes[1] += 1;
                                }

                                else {
                                    votes[0] += 1;
                                }
                            }
                        }

                        else {
                            if (x[12] <= -0.9949999749660492) {
                                if (x[0] <= 5.004999876022339) {
                                    votes[0] += 1;
                                }

                                else {
                                    votes[1] += 1;
                                }
                            }

                            else {
                                if (x[14] <= 1.1749999821186066) {
                                    votes[1] += 1;
                                }

                                else {
                                    votes[0] += 1;
                                }
                            }
                        }

                        // tree #3
                        if (x[13] <= 9.404999732971191) {
                            if (x[1] <= 4.5350000858306885) {
                                votes[0] += 1;
                            }

                            else {
                                if (x[14] <= -1.574999988079071) {
                                    votes[1] += 1;
                                }

                                else {
                                    if (x[16] <= -0.08000000193715096) {
                                        votes[1] += 1;
                                    }

                                    else {
                                        if (x[8] <= 0.5100000221282244) {
                                            if (x[9] <= 0.3099999986588955) {
                                                votes[0] += 1;
                                            }

                                            else {
                                                votes[1] += 1;
                                            }
                                        }

                                        else {
                                            votes[0] += 1;
                                        }
                                    }
                                }
                            }
                        }

                        else {
                            if (x[8] <= 0.9949999749660492) {
                                votes[1] += 1;
                            }

                            else {
                                if (x[8] <= 1.1299999952316284) {
                                    if (x[3] <= 1.3000000417232513) {
                                        votes[1] += 1;
                                    }

                                    else {
                                        votes[0] += 1;
                                    }
                                }

                                else {
                                    votes[0] += 1;
                                }
                            }
                        }

                        // tree #4
                        if (x[8] <= 0.9949999749660492) {
                            if (x[13] <= 9.194999694824219) {
                                votes[0] += 1;
                            }

                            else {
                                if (x[14] <= 0.6449999809265137) {
                                    votes[1] += 1;
                                }

                                else {
                                    votes[0] += 1;
                                }
                            }
                        }

                        else {
                            if (x[2] <= 3.799999952316284) {
                                if (x[6] <= 7.6600000858306885) {
                                    if (x[14] <= 0.125) {
                                        votes[1] += 1;
                                    }

                                    else {
                                        votes[0] += 1;
                                    }
                                }

                                else {
                                    votes[0] += 1;
                                }
                            }

                            else {
                                votes[0] += 1;
                            }
                        }

                        // tree #5
                        if (x[15] <= 0.10500000044703484) {
                            if (x[13] <= 9.400000095367432) {
                                if (x[0] <= 3.6799999475479126) {
                                    if (x[10] <= -0.009999999776482582) {
                                        votes[1] += 1;
                                    }

                                    else {
                                        votes[0] += 1;
                                    }
                                }

                                else {
                                    votes[0] += 1;
                                }
                            }

                            else {
                                if (x[8] <= 1.1749999523162842) {
                                    votes[1] += 1;
                                }

                                else {
                                    votes[0] += 1;
                                }
                            }
                        }

                        else {
                            if (x[17] <= -0.04499999899417162) {
                                votes[1] += 1;
                            }

                            else {
                                votes[0] += 1;
                            }
                        }

                        // tree #6
                        if (x[8] <= 1.1649999618530273) {
                            if (x[13] <= 9.115000247955322) {
                                if (x[0] <= 5.065000057220459) {
                                    votes[0] += 1;
                                }

                                else {
                                    votes[1] += 1;
                                }
                            }

                            else {
                                if (x[6] <= 4.754999876022339) {
                                    votes[0] += 1;
                                }

                                else {
                                    if (x[12] <= -1.1849999725818634) {
                                        votes[0] += 1;
                                    }

                                    else {
                                        votes[1] += 1;
                                    }
                                }
                            }
                        }

                        else {
                            votes[0] += 1;
                        }

                        // tree #7
                        if (x[8] <= 1.2799999713897705) {
                            if (x[6] <= 4.829999923706055) {
                                if (x[7] <= 9.355000019073486) {
                                    votes[0] += 1;
                                }

                                else {
                                    if (x[4] <= -0.4650000035762787) {
                                        votes[0] += 1;
                                    }

                                    else {
                                        votes[1] += 1;
                                    }
                                }
                            }

                            else {
                                if (x[11] <= 0.5699999928474426) {
                                    if (x[14] <= 1.219999998807907) {
                                        votes[1] += 1;
                                    }

                                    else {
                                        votes[0] += 1;
                                    }
                                }

                                else {
                                    votes[0] += 1;
                                }
                            }
                        }

                        else {
                            votes[0] += 1;
                        }

                        // tree #8
                        if (x[1] <= 4.764999866485596) {
                            if (x[3] <= 2.634999990463257) {
                                votes[0] += 1;
                            }

                            else {
                                if (x[10] <= 0.22500000521540642) {
                                    votes[0] += 1;
                                }

                                else {
                                    votes[1] += 1;
                                }
                            }
                        }

                        else {
                            if (x[7] <= 2.0800000429153442) {
                                votes[0] += 1;
                            }

                            else {
                                if (x[0] <= 6.194999933242798) {
                                    if (x[15] <= 0.26999999582767487) {
                                        votes[1] += 1;
                                    }

                                    else {
                                        votes[0] += 1;
                                    }
                                }

                                else {
                                    votes[0] += 1;
                                }
                            }
                        }

                        // tree #9
                        if (x[1] <= 4.650000095367432) {
                            votes[0] += 1;
                        }

                        else {
                            if (x[14] <= 0.5799999982118607) {
                                if (x[7] <= 1.96999990940094) {
                                    votes[0] += 1;
                                }

                                else {
                                    votes[1] += 1;
                                }
                            }

                            else {
                                votes[0] += 1;
                            }
                        }

                        // tree #10
                        if (x[1] <= 4.5350000858306885) {
                            if (x[8] <= -3.2850000858306885) {
                                votes[1] += 1;
                            }

                            else {
                                votes[0] += 1;
                            }
                        }

                        else {
                            if (x[6] <= 8.180000066757202) {
                                if (x[8] <= 1.3949999809265137) {
                                    if (x[4] <= 0.4050000011920929) {
                                        votes[1] += 1;
                                    }

                                    else {
                                        votes[0] += 1;
                                    }
                                }

                                else {
                                    votes[0] += 1;
                                }
                            }

                            else {
                                votes[0] += 1;
                            }
                        }

                        // tree #11
                        if (x[12] <= -0.6899999976158142) {
                            if (x[6] <= 6.174999952316284) {
                                if (x[14] <= -2.005000054836273) {
                                    votes[1] += 1;
                                }

                                else {
                                    votes[0] += 1;
                                }
                            }

                            else {
                                votes[0] += 1;
                            }
                        }

                        else {
                            if (x[12] <= 1.5399999618530273) {
                                if (x[11] <= -0.5649999976158142) {
                                    votes[0] += 1;
                                }

                                else {
                                    if (x[6] <= 4.304999828338623) {
                                        votes[0] += 1;
                                    }

                                    else {
                                        if (x[10] <= 0.3449999988079071) {
                                            if (x[4] <= 0.38499999046325684) {
                                                votes[1] += 1;
                                            }

                                            else {
                                                votes[0] += 1;
                                            }
                                        }

                                        else {
                                            if (x[6] <= 6.805000066757202) {
                                                votes[0] += 1;
                                            }

                                            else {
                                                votes[1] += 1;
                                            }
                                        }
                                    }
                                }
                            }

                            else {
                                votes[0] += 1;
                            }
                        }

                        // tree #12
                        if (x[6] <= 4.360000133514404) {
                            if (x[10] <= -0.6550000011920929) {
                                votes[1] += 1;
                            }

                            else {
                                votes[0] += 1;
                            }
                        }

                        else {
                            if (x[12] <= -0.9050000011920929) {
                                if (x[8] <= -0.009999990463256836) {
                                    votes[1] += 1;
                                }

                                else {
                                    votes[0] += 1;
                                }
                            }

                            else {
                                if (x[4] <= -0.41499999165534973) {
                                    votes[0] += 1;
                                }

                                else {
                                    if (x[4] <= 0.32999999821186066) {
                                        votes[1] += 1;
                                    }

                                    else {
                                        if (x[6] <= 7.0) {
                                            votes[0] += 1;
                                        }

                                        else {
                                            votes[1] += 1;
                                        }
                                    }
                                }
                            }
                        }

                        // tree #13
                        if (x[14] <= 0.6349999904632568) {
                            if (x[6] <= 4.325000047683716) {
                                if (x[8] <= -2.0049999952316284) {
                                    if (x[14] <= -6.184999942779541) {
                                        votes[0] += 1;
                                    }

                                    else {
                                        votes[1] += 1;
                                    }
                                }

                                else {
                                    votes[0] += 1;
                                }
                            }

                            else {
                                if (x[6] <= 7.755000114440918) {
                                    if (x[17] <= -0.14999999850988388) {
                                        votes[0] += 1;
                                    }

                                    else {
                                        votes[1] += 1;
                                    }
                                }

                                else {
                                    votes[0] += 1;
                                }
                            }
                        }

                        else {
                            votes[0] += 1;
                        }

                        // tree #14
                        if (x[2] <= 4.525000095367432) {
                            if (x[11] <= 0.4399999976158142) {
                                if (x[12] <= 1.4899999499320984) {
                                    if (x[8] <= 1.199999988079071) {
                                        if (x[14] <= 0.6449999809265137) {
                                            votes[1] += 1;
                                        }

                                        else {
                                            votes[0] += 1;
                                        }
                                    }

                                    else {
                                        votes[0] += 1;
                                    }
                                }

                                else {
                                    votes[0] += 1;
                                }
                            }

                            else {
                                votes[0] += 1;
                            }
                        }

                        else {
                            if (x[0] <= 2.184999942779541) {
                                votes[1] += 1;
                            }

                            else {
                                votes[0] += 1;
                            }
                        }

                        // tree #15
                        if (x[2] <= 4.879999876022339) {
                            if (x[6] <= 7.755000114440918) {
                                if (x[0] <= 6.049999952316284) {
                                    if (x[11] <= 0.8199999928474426) {
                                        if (x[17] <= 0.014999999664723873) {
                                            votes[1] += 1;
                                        }

                                        else {
                                            if (x[11] <= -0.0949999988079071) {
                                                votes[1] += 1;
                                            }

                                            else {
                                                votes[0] += 1;
                                            }
                                        }
                                    }

                                    else {
                                        votes[0] += 1;
                                    }
                                }

                                else {
                                    votes[0] += 1;
                                }
                            }

                            else {
                                votes[0] += 1;
                            }
                        }

                        else {
                            if (x[8] <= -2.7600000500679016) {
                                votes[1] += 1;
                            }

                            else {
                                votes[0] += 1;
                            }
                        }

                        // tree #16
                        if (x[13] <= 9.385000228881836) {
                            if (x[7] <= 9.15999984741211) {
                                if (x[12] <= 0.4699999988079071) {
                                    if (x[1] <= 7.045000076293945) {
                                        votes[0] += 1;
                                    }

                                    else {
                                        if (x[9] <= 0.03000000026077032) {
                                            votes[0] += 1;
                                        }

                                        else {
                                            votes[1] += 1;
                                        }
                                    }
                                }

                                else {
                                    if (x[15] <= 0.4400000125169754) {
                                        if (x[4] <= -0.35999999940395355) {
                                            votes[0] += 1;
                                        }

                                        else {
                                            votes[1] += 1;
                                        }
                                    }

                                    else {
                                        votes[0] += 1;
                                    }
                                }
                            }

                            else {
                                if (x[14] <= -2.5700000524520874) {
                                    votes[1] += 1;
                                }

                                else {
                                    votes[0] += 1;
                                }
                            }
                        }

                        else {
                            if (x[8] <= 1.1649999618530273) {
                                if (x[4] <= 0.38499999046325684) {
                                    if (x[12] <= -1.1849999725818634) {
                                        votes[0] += 1;
                                    }

                                    else {
                                        votes[1] += 1;
                                    }
                                }

                                else {
                                    votes[0] += 1;
                                }
                            }

                            else {
                                votes[0] += 1;
                            }
                        }

                        // tree #17
                        if (x[8] <= 1.1749999523162842) {
                            if (x[11] <= 0.4050000011920929) {
                                if (x[1] <= 4.990000009536743) {
                                    votes[0] += 1;
                                }

                                else {
                                    if (x[0] <= 6.194999933242798) {
                                        if (x[4] <= 0.3500000089406967) {
                                            votes[1] += 1;
                                        }

                                        else {
                                            votes[0] += 1;
                                        }
                                    }

                                    else {
                                        votes[0] += 1;
                                    }
                                }
                            }

                            else {
                                votes[0] += 1;
                            }
                        }

                        else {
                            votes[0] += 1;
                        }

                        // tree #18
                        if (x[1] <= 4.764999866485596) {
                            if (x[9] <= -0.3499999940395355) {
                                if (x[14] <= -1.6299999952316284) {
                                    if (x[3] <= 2.3749999403953552) {
                                        votes[1] += 1;
                                    }

                                    else {
                                        votes[0] += 1;
                                    }
                                }

                                else {
                                    votes[0] += 1;
                                }
                            }

                            else {
                                votes[0] += 1;
                            }
                        }

                        else {
                            if (x[12] <= -0.9949999749660492) {
                                votes[0] += 1;
                            }

                            else {
                                if (x[4] <= -0.39499999582767487) {
                                    if (x[12] <= 0.23500000685453415) {
                                        votes[1] += 1;
                                    }

                                    else {
                                        votes[0] += 1;
                                    }
                                }

                                else {
                                    votes[1] += 1;
                                }
                            }
                        }

                        // tree #19
                        if (x[1] <= 4.650000095367432) {
                            if (x[0] <= 1.8049999475479126) {
                                if (x[4] <= -0.39499999955296516) {
                                    votes[1] += 1;
                                }

                                else {
                                    votes[0] += 1;
                                }
                            }

                            else {
                                votes[0] += 1;
                            }
                        }

                        else {
                            if (x[6] <= 8.070000171661377) {
                                if (x[8] <= 1.3949999809265137) {
                                    if (x[14] <= 0.5799999982118607) {
                                        votes[1] += 1;
                                    }

                                    else {
                                        votes[0] += 1;
                                    }
                                }

                                else {
                                    votes[0] += 1;
                                }
                            }

                            else {
                                votes[0] += 1;
                            }
                        }

                        // tree #20
                        if (x[8] <= 0.9300000071525574) {
                            if (x[6] <= 4.495000123977661) {
                                if (x[4] <= -0.21000000275671482) {
                                    if (x[14] <= -3.265000104904175) {
                                        votes[1] += 1;
                                    }

                                    else {
                                        votes[0] += 1;
                                    }
                                }

                                else {
                                    votes[0] += 1;
                                }
                            }

                            else {
                                if (x[2] <= -3.494999945163727) {
                                    votes[0] += 1;
                                }

                                else {
                                    if (x[12] <= 0.30000001192092896) {
                                        votes[1] += 1;
                                    }

                                    else {
                                        if (x[2] <= 0.36000001057982445) {
                                            votes[0] += 1;
                                        }

                                        else {
                                            votes[1] += 1;
                                        }
                                    }
                                }
                            }
                        }

                        else {
                            if (x[10] <= 0.23499999940395355) {
                                votes[0] += 1;
                            }

                            else {
                                if (x[8] <= 1.2350000143051147) {
                                    votes[1] += 1;
                                }

                                else {
                                    votes[0] += 1;
                                }
                            }
                        }

                        // tree #21
                        if (x[1] <= 4.650000095367432) {
                            if (x[4] <= 0.10000000055879354) {
                                votes[0] += 1;
                            }

                            else {
                                if (x[17] <= -0.0949999988079071) {
                                    votes[1] += 1;
                                }

                                else {
                                    votes[0] += 1;
                                }
                            }
                        }

                        else {
                            if (x[14] <= 0.6449999809265137) {
                                if (x[6] <= 8.065000057220459) {
                                    votes[1] += 1;
                                }

                                else {
                                    votes[0] += 1;
                                }
                            }

                            else {
                                votes[0] += 1;
                            }
                        }

                        // tree #22
                        if (x[2] <= 4.380000114440918) {
                            if (x[1] <= 4.7099997997283936) {
                                votes[0] += 1;
                            }

                            else {
                                if (x[5] <= 1.1850000023841858) {
                                    if (x[11] <= 0.5200000107288361) {
                                        if (x[10] <= 0.03499999921768904) {
                                            votes[1] += 1;
                                        }

                                        else {
                                            if (x[17] <= -0.08499999903142452) {
                                                votes[0] += 1;
                                            }

                                            else {
                                                if (x[14] <= 0.9750000014901161) {
                                                    votes[1] += 1;
                                                }

                                                else {
                                                    votes[0] += 1;
                                                }
                                            }
                                        }
                                    }

                                    else {
                                        votes[0] += 1;
                                    }
                                }

                                else {
                                    votes[0] += 1;
                                }
                            }
                        }

                        else {
                            if (x[10] <= -0.17500000074505806) {
                                if (x[6] <= 1.7800000309944153) {
                                    votes[0] += 1;
                                }

                                else {
                                    if (x[11] <= 0.42499998211860657) {
                                        votes[1] += 1;
                                    }

                                    else {
                                        votes[0] += 1;
                                    }
                                }
                            }

                            else {
                                votes[0] += 1;
                            }
                        }

                        // tree #23
                        if (x[11] <= 0.3800000101327896) {
                            if (x[13] <= 9.404999732971191) {
                                if (x[14] <= -1.574999988079071) {
                                    if (x[1] <= -1.989999771118164) {
                                        votes[0] += 1;
                                    }

                                    else {
                                        votes[1] += 1;
                                    }
                                }

                                else {
                                    if (x[12] <= 0.7949999868869781) {
                                        votes[0] += 1;
                                    }

                                    else {
                                        votes[1] += 1;
                                    }
                                }
                            }

                            else {
                                if (x[12] <= -0.6800000071525574) {
                                    if (x[11] <= -0.2550000101327896) {
                                        votes[0] += 1;
                                    }

                                    else {
                                        votes[1] += 1;
                                    }
                                }

                                else {
                                    if (x[15] <= -0.07499999925494194) {
                                        if (x[16] <= 0.0) {
                                            votes[1] += 1;
                                        }

                                        else {
                                            votes[0] += 1;
                                        }
                                    }

                                    else {
                                        if (x[1] <= -0.5199999809265137) {
                                            votes[0] += 1;
                                        }

                                        else {
                                            votes[1] += 1;
                                        }
                                    }
                                }
                            }
                        }

                        else {
                            votes[0] += 1;
                        }

                        // tree #24
                        if (x[1] <= 3.700000047683716) {
                            votes[0] += 1;
                        }

                        else {
                            if (x[10] <= 0.33500000834465027) {
                                if (x[7] <= 2.7750000059604645) {
                                    votes[0] += 1;
                                }

                                else {
                                    if (x[14] <= 0.6449999809265137) {
                                        votes[1] += 1;
                                    }

                                    else {
                                        votes[0] += 1;
                                    }
                                }
                            }

                            else {
                                if (x[5] <= -0.8649999797344208) {
                                    votes[1] += 1;
                                }

                                else {
                                    votes[0] += 1;
                                }
                            }
                        }

                        // tree #25
                        if (x[6] <= 4.240000009536743) {
                            if (x[17] <= 0.3050000071525574) {
                                votes[0] += 1;
                            }

                            else {
                                if (x[2] <= 5.365000009536743) {
                                    votes[0] += 1;
                                }

                                else {
                                    votes[1] += 1;
                                }
                            }
                        }

                        else {
                            if (x[12] <= -0.9050000011920929) {
                                if (x[6] <= 5.5899999141693115) {
                                    votes[1] += 1;
                                }

                                else {
                                    votes[0] += 1;
                                }
                            }

                            else {
                                if (x[0] <= 6.194999933242798) {
                                    votes[1] += 1;
                                }

                                else {
                                    votes[0] += 1;
                                }
                            }
                        }

                        // tree #26
                        if (x[0] <= 5.325000047683716) {
                            if (x[1] <= 4.170000076293945) {
                                votes[0] += 1;
                            }

                            else {
                                if (x[6] <= 7.920000076293945) {
                                    if (x[11] <= -0.7850000262260437) {
                                        votes[0] += 1;
                                    }

                                    else {
                                        votes[1] += 1;
                                    }
                                }

                                else {
                                    votes[0] += 1;
                                }
                            }
                        }

                        else {
                            votes[0] += 1;
                        }

                        // tree #27
                        if (x[12] <= -0.6899999976158142) {
                            if (x[17] <= -0.03499999921768904) {
                                if (x[15] <= -0.015000000596046448) {
                                    votes[0] += 1;
                                }

                                else {
                                    votes[1] += 1;
                                }
                            }

                            else {
                                votes[0] += 1;
                            }
                        }

                        else {
                            if (x[0] <= 5.575000047683716) {
                                if (x[13] <= 9.050000190734863) {
                                    votes[0] += 1;
                                }

                                else {
                                    if (x[1] <= 2.465000033378601) {
                                        votes[0] += 1;
                                    }

                                    else {
                                        if (x[10] <= 0.1850000023841858) {
                                            votes[1] += 1;
                                        }

                                        else {
                                            if (x[10] <= 0.2149999961256981) {
                                                votes[0] += 1;
                                            }

                                            else {
                                                votes[1] += 1;
                                            }
                                        }
                                    }
                                }
                            }

                            else {
                                votes[0] += 1;
                            }
                        }

                        // tree #28
                        if (x[6] <= 4.304999828338623) {
                            if (x[16] <= -0.4050000011920929) {
                                votes[1] += 1;
                            }

                            else {
                                votes[0] += 1;
                            }
                        }

                        else {
                            if (x[8] <= 1.1649999618530273) {
                                if (x[0] <= 6.194999933242798) {
                                    if (x[12] <= -0.6899999976158142) {
                                        votes[0] += 1;
                                    }

                                    else {
                                        votes[1] += 1;
                                    }
                                }

                                else {
                                    votes[0] += 1;
                                }
                            }

                            else {
                                votes[0] += 1;
                            }
                        }

                        // tree #29
                        if (x[1] <= 4.5350000858306885) {
                            votes[0] += 1;
                        }

                        else {
                            if (x[4] <= -0.41499999165534973) {
                                votes[0] += 1;
                            }

                            else {
                                if (x[2] <= -3.5950000882148743) {
                                    votes[0] += 1;
                                }

                                else {
                                    votes[1] += 1;
                                }
                            }
                        }

                        // tree #30
                        if (x[13] <= 9.37000036239624) {
                            if (x[16] <= 0.13499999791383743) {
                                if (x[16] <= -0.36500000208616257) {
                                    votes[1] += 1;
                                }

                                else {
                                    votes[0] += 1;
                                }
                            }

                            else {
                                if (x[8] <= 0.3249999899417162) {
                                    if (x[17] <= -0.2750000059604645) {
                                        votes[0] += 1;
                                    }

                                    else {
                                        votes[1] += 1;
                                    }
                                }

                                else {
                                    votes[0] += 1;
                                }
                            }
                        }

                        else {
                            if (x[2] <= 4.559999942779541) {
                                if (x[8] <= 1.1749999523162842) {
                                    if (x[14] <= 0.6449999809265137) {
                                        if (x[10] <= 0.2499999925494194) {
                                            votes[1] += 1;
                                        }

                                        else {
                                            if (x[10] <= 0.29500000178813934) {
                                                votes[0] += 1;
                                            }

                                            else {
                                                votes[1] += 1;
                                            }
                                        }
                                    }

                                    else {
                                        votes[0] += 1;
                                    }
                                }

                                else {
                                    votes[0] += 1;
                                }
                            }

                            else {
                                if (x[12] <= 0.5999999940395355) {
                                    votes[0] += 1;
                                }

                                else {
                                    votes[1] += 1;
                                }
                            }
                        }

                        // tree #31
                        if (x[12] <= -0.6899999976158142) {
                            if (x[14] <= -1.9399999976158142) {
                                votes[1] += 1;
                            }

                            else {
                                votes[0] += 1;
                            }
                        }

                        else {
                            if (x[15] <= 0.06499999947845936) {
                                if (x[4] <= -0.29500000178813934) {
                                    if (x[11] <= -0.1800000062212348) {
                                        votes[1] += 1;
                                    }

                                    else {
                                        if (x[14] <= -0.7599999904632568) {
                                            votes[0] += 1;
                                        }

                                        else {
                                            if (x[14] <= 0.7950000166893005) {
                                                votes[1] += 1;
                                            }

                                            else {
                                                votes[0] += 1;
                                            }
                                        }
                                    }
                                }

                                else {
                                    if (x[12] <= 2.504999965429306) {
                                        if (x[6] <= 4.424999952316284) {
                                            votes[0] += 1;
                                        }

                                        else {
                                            if (x[0] <= 6.390000104904175) {
                                                votes[1] += 1;
                                            }

                                            else {
                                                votes[0] += 1;
                                            }
                                        }
                                    }

                                    else {
                                        votes[0] += 1;
                                    }
                                }
                            }

                            else {
                                if (x[1] <= 2.774999976158142) {
                                    votes[0] += 1;
                                }

                                else {
                                    votes[1] += 1;
                                }
                            }
                        }

                        // tree #32
                        if (x[10] <= -0.06499999947845936) {
                            if (x[9] <= -0.39499999582767487) {
                                votes[0] += 1;
                            }

                            else {
                                if (x[5] <= 1.1949999928474426) {
                                    votes[1] += 1;
                                }

                                else {
                                    votes[0] += 1;
                                }
                            }
                        }

                        else {
                            if (x[1] <= 5.855000019073486) {
                                if (x[13] <= 9.464999675750732) {
                                    votes[0] += 1;
                                }

                                else {
                                    if (x[8] <= 0.06999999284744263) {
                                        votes[1] += 1;
                                    }

                                    else {
                                        votes[0] += 1;
                                    }
                                }
                            }

                            else {
                                if (x[17] <= -0.08499999903142452) {
                                    votes[0] += 1;
                                }

                                else {
                                    if (x[12] <= -1.0199999809265137) {
                                        if (x[7] <= 3.5049999952316284) {
                                            votes[0] += 1;
                                        }

                                        else {
                                            votes[1] += 1;
                                        }
                                    }

                                    else {
                                        votes[1] += 1;
                                    }
                                }
                            }
                        }

                        // tree #33
                        if (x[1] <= 4.7099997997283936) {
                            if (x[1] <= 4.170000076293945) {
                                votes[0] += 1;
                            }

                            else {
                                if (x[3] <= 0.1899999976158142) {
                                    if (x[4] <= -0.3549999985843897) {
                                        votes[1] += 1;
                                    }

                                    else {
                                        votes[0] += 1;
                                    }
                                }

                                else {
                                    votes[1] += 1;
                                }
                            }
                        }

                        else {
                            if (x[3] <= -2.475000023841858) {
                                votes[0] += 1;
                            }

                            else {
                                if (x[11] <= 0.5000000149011612) {
                                    if (x[6] <= 8.349999904632568) {
                                        votes[1] += 1;
                                    }

                                    else {
                                        votes[0] += 1;
                                    }
                                }

                                else {
                                    votes[0] += 1;
                                }
                            }
                        }

                        // tree #34
                        if (x[15] <= 0.17499999701976776) {
                            if (x[1] <= 2.8200000524520874) {
                                votes[0] += 1;
                            }

                            else {
                                if (x[7] <= 1.6449999809265137) {
                                    votes[0] += 1;
                                }

                                else {
                                    if (x[0] <= 6.269999980926514) {
                                        votes[1] += 1;
                                    }

                                    else {
                                        votes[0] += 1;
                                    }
                                }
                            }
                        }

                        else {
                            votes[0] += 1;
                        }

                        // tree #35
                        if (x[13] <= 9.389999866485596) {
                            if (x[4] <= -0.17999999970197678) {
                                if (x[16] <= -0.055000001564621925) {
                                    votes[1] += 1;
                                }

                                else {
                                    votes[0] += 1;
                                }
                            }

                            else {
                                if (x[16] <= 0.11500000208616257) {
                                    votes[0] += 1;
                                }

                                else {
                                    if (x[1] <= 3.2950000762939453) {
                                        votes[0] += 1;
                                    }

                                    else {
                                        if (x[8] <= 1.0099999625235796) {
                                            votes[1] += 1;
                                        }

                                        else {
                                            votes[0] += 1;
                                        }
                                    }
                                }
                            }
                        }

                        else {
                            if (x[13] <= 9.635000228881836) {
                                if (x[8] <= 1.4300000071525574) {
                                    votes[1] += 1;
                                }

                                else {
                                    votes[0] += 1;
                                }
                            }

                            else {
                                if (x[0] <= 2.924999952316284) {
                                    if (x[7] <= 0.5600001811981201) {
                                        votes[0] += 1;
                                    }

                                    else {
                                        votes[1] += 1;
                                    }
                                }

                                else {
                                    votes[0] += 1;
                                }
                            }
                        }

                        // tree #36
                        if (x[6] <= 4.304999828338623) {
                            if (x[1] <= 4.884999990463257) {
                                votes[0] += 1;
                            }

                            else {
                                if (x[2] <= 4.534999966621399) {
                                    votes[0] += 1;
                                }

                                else {
                                    votes[1] += 1;
                                }
                            }
                        }

                        else {
                            if (x[13] <= 9.139999866485596) {
                                votes[0] += 1;
                            }

                            else {
                                if (x[5] <= 1.2549999952316284) {
                                    if (x[7] <= 2.0700000524520874) {
                                        votes[0] += 1;
                                    }

                                    else {
                                        if (x[0] <= 6.434999942779541) {
                                            votes[1] += 1;
                                        }

                                        else {
                                            votes[0] += 1;
                                        }
                                    }
                                }

                                else {
                                    votes[0] += 1;
                                }
                            }
                        }

                        // tree #37
                        if (x[13] <= 9.375) {
                            if (x[2] <= 5.264999866485596) {
                                if (x[6] <= 4.609999895095825) {
                                    votes[0] += 1;
                                }

                                else {
                                    if (x[8] <= 0.6500000059604645) {
                                        if (x[17] <= -0.04499999899417162) {
                                            votes[1] += 1;
                                        }

                                        else {
                                            if (x[6] <= 5.444999933242798) {
                                                votes[1] += 1;
                                            }

                                            else {
                                                votes[0] += 1;
                                            }
                                        }
                                    }

                                    else {
                                        votes[0] += 1;
                                    }
                                }
                            }

                            else {
                                if (x[10] <= -0.16500000096857548) {
                                    votes[1] += 1;
                                }

                                else {
                                    votes[0] += 1;
                                }
                            }
                        }

                        else {
                            if (x[8] <= 1.1749999523162842) {
                                if (x[4] <= 0.28999999165534973) {
                                    votes[1] += 1;
                                }

                                else {
                                    votes[0] += 1;
                                }
                            }

                            else {
                                votes[0] += 1;
                            }
                        }

                        // tree #38
                        if (x[7] <= 5.75) {
                            votes[0] += 1;
                        }

                        else {
                            if (x[6] <= 4.754999876022339) {
                                votes[0] += 1;
                            }

                            else {
                                if (x[12] <= 0.32500000298023224) {
                                    votes[1] += 1;
                                }

                                else {
                                    if (x[2] <= 0.36000001057982445) {
                                        if (x[2] <= -0.8549999892711639) {
                                            votes[1] += 1;
                                        }

                                        else {
                                            if (x[1] <= 5.960000038146973) {
                                                votes[0] += 1;
                                            }

                                            else {
                                                votes[1] += 1;
                                            }
                                        }
                                    }

                                    else {
                                        votes[1] += 1;
                                    }
                                }
                            }
                        }

                        // tree #39
                        if (x[12] <= -0.9899999797344208) {
                            if (x[9] <= 0.6150000095367432) {
                                votes[0] += 1;
                            }

                            else {
                                votes[1] += 1;
                            }
                        }

                        else {
                            if (x[1] <= 3.850000023841858) {
                                votes[0] += 1;
                            }

                            else {
                                if (x[14] <= 0.6349999904632568) {
                                    if (x[12] <= -0.9050000011920929) {
                                        if (x[7] <= 2.4100000858306885) {
                                            votes[0] += 1;
                                        }

                                        else {
                                            votes[1] += 1;
                                        }
                                    }

                                    else {
                                        votes[1] += 1;
                                    }
                                }

                                else {
                                    votes[0] += 1;
                                }
                            }
                        }

                        // tree #40
                        if (x[1] <= 4.650000095367432) {
                            if (x[8] <= -1.5600000023841858) {
                                if (x[3] <= -0.7750000357627869) {
                                    votes[0] += 1;
                                }

                                else {
                                    votes[1] += 1;
                                }
                            }

                            else {
                                votes[0] += 1;
                            }
                        }

                        else {
                            if (x[8] <= 0.8799999952316284) {
                                if (x[2] <= -0.23000000417232513) {
                                    if (x[8] <= -0.32999998331069946) {
                                        votes[0] += 1;
                                    }

                                    else {
                                        votes[1] += 1;
                                    }
                                }

                                else {
                                    votes[1] += 1;
                                }
                            }

                            else {
                                if (x[17] <= 0.04999999888241291) {
                                    if (x[1] <= 7.954999923706055) {
                                        votes[0] += 1;
                                    }

                                    else {
                                        votes[1] += 1;
                                    }
                                }

                                else {
                                    votes[1] += 1;
                                }
                            }
                        }

                        // tree #41
                        if (x[8] <= 1.1649999618530273) {
                            if (x[14] <= -4.309999942779541) {
                                votes[0] += 1;
                            }

                            else {
                                if (x[1] <= 4.599999904632568) {
                                    if (x[8] <= -2.7050000429153442) {
                                        votes[1] += 1;
                                    }

                                    else {
                                        votes[0] += 1;
                                    }
                                }

                                else {
                                    if (x[9] <= 0.5800000131130219) {
                                        votes[1] += 1;
                                    }

                                    else {
                                        votes[0] += 1;
                                    }
                                }
                            }
                        }

                        else {
                            votes[0] += 1;
                        }

                        // tree #42
                        if (x[2] <= 4.559999942779541) {
                            if (x[1] <= 5.005000114440918) {
                                if (x[13] <= 9.53499984741211) {
                                    votes[0] += 1;
                                }

                                else {
                                    if (x[11] <= -0.10000000894069672) {
                                        votes[0] += 1;
                                    }

                                    else {
                                        votes[1] += 1;
                                    }
                                }
                            }

                            else {
                                if (x[13] <= 9.394999980926514) {
                                    if (x[7] <= 7.875) {
                                        votes[0] += 1;
                                    }

                                    else {
                                        votes[1] += 1;
                                    }
                                }

                                else {
                                    if (x[7] <= 0.7200000286102295) {
                                        votes[0] += 1;
                                    }

                                    else {
                                        votes[1] += 1;
                                    }
                                }
                            }
                        }

                        else {
                            if (x[1] <= 5.2200000286102295) {
                                if (x[3] <= -2.434999942779541) {
                                    votes[1] += 1;
                                }

                                else {
                                    votes[0] += 1;
                                }
                            }

                            else {
                                votes[1] += 1;
                            }
                        }

                        // tree #43
                        if (x[13] <= 9.400000095367432) {
                            if (x[10] <= -0.6099999994039536) {
                                votes[1] += 1;
                            }

                            else {
                                if (x[14] <= -1.600000023841858) {
                                    if (x[0] <= 2.8450000286102295) {
                                        votes[0] += 1;
                                    }

                                    else {
                                        if (x[5] <= -0.9399999976158142) {
                                            votes[0] += 1;
                                        }

                                        else {
                                            votes[1] += 1;
                                        }
                                    }
                                }

                                else {
                                    if (x[1] <= 6.799999952316284) {
                                        votes[0] += 1;
                                    }

                                    else {
                                        if (x[7] <= 7.5400002002716064) {
                                            votes[1] += 1;
                                        }

                                        else {
                                            votes[0] += 1;
                                        }
                                    }
                                }
                            }
                        }

                        else {
                            if (x[13] <= 9.84499979019165) {
                                if (x[6] <= 2.5350000001490116) {
                                    votes[0] += 1;
                                }

                                else {
                                    if (x[12] <= -1.379999965429306) {
                                        votes[0] += 1;
                                    }

                                    else {
                                        votes[1] += 1;
                                    }
                                }
                            }

                            else {
                                votes[0] += 1;
                            }
                        }

                        // tree #44
                        if (x[11] <= -0.5200000107288361) {
                            votes[0] += 1;
                        }

                        else {
                            if (x[1] <= 3.850000023841858) {
                                votes[0] += 1;
                            }

                            else {
                                if (x[10] <= 0.33500000834465027) {
                                    if (x[4] <= -0.9249999821186066) {
                                        votes[0] += 1;
                                    }

                                    else {
                                        if (x[14] <= 1.155000001192093) {
                                            if (x[11] <= 0.5549999922513962) {
                                                votes[1] += 1;
                                            }

                                            else {
                                                votes[0] += 1;
                                            }
                                        }

                                        else {
                                            votes[0] += 1;
                                        }
                                    }
                                }

                                else {
                                    if (x[0] <= 4.444999933242798) {
                                        if (x[8] <= 1.2899999916553497) {
                                            votes[1] += 1;
                                        }

                                        else {
                                            votes[0] += 1;
                                        }
                                    }

                                    else {
                                        votes[0] += 1;
                                    }
                                }
                            }
                        }

                        // tree #45
                        if (x[6] <= 4.754999876022339) {
                            if (x[1] <= 4.28000009059906) {
                                votes[0] += 1;
                            }

                            else {
                                if (x[8] <= -0.7250000089406967) {
                                    votes[1] += 1;
                                }

                                else {
                                    votes[0] += 1;
                                }
                            }
                        }

                        else {
                            if (x[8] <= 1.1749999523162842) {
                                if (x[0] <= 6.150000095367432) {
                                    if (x[11] <= 0.5649999976158142) {
                                        votes[1] += 1;
                                    }

                                    else {
                                        votes[0] += 1;
                                    }
                                }

                                else {
                                    votes[0] += 1;
                                }
                            }

                            else {
                                votes[0] += 1;
                            }
                        }

                        // tree #46
                        if (x[11] <= 0.38500000536441803) {
                            if (x[2] <= 4.879999876022339) {
                                if (x[13] <= 9.394999980926514) {
                                    if (x[1] <= 6.1000001430511475) {
                                        votes[0] += 1;
                                    }

                                    else {
                                        votes[1] += 1;
                                    }
                                }

                                else {
                                    if (x[6] <= 7.75) {
                                        if (x[5] <= -0.1250000037252903) {
                                            if (x[16] <= 0.0) {
                                                votes[0] += 1;
                                            }

                                            else {
                                                votes[1] += 1;
                                            }
                                        }

                                        else {
                                            votes[1] += 1;
                                        }
                                    }

                                    else {
                                        votes[0] += 1;
                                    }
                                }
                            }

                            else {
                                if (x[8] <= 0.4300000090152025) {
                                    if (x[16] <= 0.06500000320374966) {
                                        votes[0] += 1;
                                    }

                                    else {
                                        votes[1] += 1;
                                    }
                                }

                                else {
                                    votes[0] += 1;
                                }
                            }
                        }

                        else {
                            votes[0] += 1;
                        }

                        // tree #47
                        if (x[0] <= 5.694999933242798) {
                            if (x[11] <= 0.38500000536441803) {
                                if (x[14] <= -4.355000019073486) {
                                    votes[0] += 1;
                                }

                                else {
                                    if (x[1] <= 3.9000000953674316) {
                                        votes[0] += 1;
                                    }

                                    else {
                                        if (x[15] <= 0.17499999701976776) {
                                            if (x[17] <= -0.11999999731779099) {
                                                if (x[12] <= -0.8399999737739563) {
                                                    votes[0] += 1;
                                                }

                                                else {
                                                    votes[1] += 1;
                                                }
                                            }

                                            else {
                                                if (x[2] <= -2.94500008225441) {
                                                    votes[0] += 1;
                                                }

                                                else {
                                                    votes[1] += 1;
                                                }
                                            }
                                        }

                                        else {
                                            votes[0] += 1;
                                        }
                                    }
                                }
                            }

                            else {
                                votes[0] += 1;
                            }
                        }

                        else {
                            votes[0] += 1;
                        }

                        // tree #48
                        if (x[13] <= 9.404999732971191) {
                            if (x[14] <= -1.600000023841858) {
                                if (x[1] <= -1.6749999523162842) {
                                    votes[0] += 1;
                                }

                                else {
                                    votes[1] += 1;
                                }
                            }

                            else {
                                if (x[16] <= -0.08000000193715096) {
                                    if (x[13] <= 9.300000190734863) {
                                        votes[1] += 1;
                                    }

                                    else {
                                        votes[0] += 1;
                                    }
                                }

                                else {
                                    votes[0] += 1;
                                }
                            }
                        }

                        else {
                            if (x[6] <= 4.240000009536743) {
                                votes[0] += 1;
                            }

                            else {
                                if (x[12] <= -1.074999988079071) {
                                    votes[0] += 1;
                                }

                                else {
                                    votes[1] += 1;
                                }
                            }
                        }

                        // tree #49
                        if (x[3] <= -1.6800000071525574) {
                            if (x[11] <= -0.33500000834465027) {
                                votes[0] += 1;
                            }

                            else {
                                if (x[14] <= 1.4149999916553497) {
                                    votes[1] += 1;
                                }

                                else {
                                    votes[0] += 1;
                                }
                            }
                        }

                        else {
                            if (x[8] <= 1.0150000154972076) {
                                if (x[11] <= 0.4050000011920929) {
                                    if (x[1] <= -0.7149999141693115) {
                                        votes[0] += 1;
                                    }

                                    else {
                                        if (x[10] <= 0.3449999988079071) {
                                            votes[1] += 1;
                                        }

                                        else {
                                            if (x[2] <= 0.07000000774860382) {
                                                votes[0] += 1;
                                            }

                                            else {
                                                votes[1] += 1;
                                            }
                                        }
                                    }
                                }

                                else {
                                    votes[0] += 1;
                                }
                            }

                            else {
                                votes[0] += 1;
                            }
                        }

                        // tree #50
                        if (x[1] <= 5.215000152587891) {
                            if (x[6] <= 6.019999980926514) {
                                votes[0] += 1;
                            }

                            else {
                                if (x[9] <= -0.5499999970197678) {
                                    votes[1] += 1;
                                }

                                else {
                                    if (x[3] <= -2.134999930858612) {
                                        votes[1] += 1;
                                    }

                                    else {
                                        votes[0] += 1;
                                    }
                                }
                            }
                        }

                        else {
                            if (x[7] <= 1.96999990940094) {
                                votes[0] += 1;
                            }

                            else {
                                if (x[8] <= 1.3949999809265137) {
                                    if (x[13] <= 9.325000286102295) {
                                        if (x[8] <= -1.3149999976158142) {
                                            votes[1] += 1;
                                        }

                                        else {
                                            votes[0] += 1;
                                        }
                                    }

                                    else {
                                        votes[1] += 1;
                                    }
                                }

                                else {
                                    votes[0] += 1;
                                }
                            }
                        }

                        // tree #51
                        if (x[1] <= 4.5350000858306885) {
                            votes[0] += 1;
                        }

                        else {
                            if (x[8] <= 0.9949999749660492) {
                                if (x[14] <= 1.0999999940395355) {
                                    votes[1] += 1;
                                }

                                else {
                                    votes[0] += 1;
                                }
                            }

                            else {
                                if (x[13] <= 9.610000133514404) {
                                    if (x[6] <= 7.920000076293945) {
                                        if (x[7] <= 7.180000305175781) {
                                            votes[1] += 1;
                                        }

                                        else {
                                            votes[0] += 1;
                                        }
                                    }

                                    else {
                                        votes[0] += 1;
                                    }
                                }

                                else {
                                    votes[1] += 1;
                                }
                            }
                        }

                        // tree #52
                        if (x[8] <= 1.1749999523162842) {
                            if (x[2] <= 4.525000095367432) {
                                if (x[13] <= 9.34000015258789) {
                                    if (x[11] <= -0.3500000089406967) {
                                        votes[1] += 1;
                                    }

                                    else {
                                        if (x[10] <= -0.07500000018626451) {
                                            votes[1] += 1;
                                        }

                                        else {
                                            votes[0] += 1;
                                        }
                                    }
                                }

                                else {
                                    if (x[11] <= -0.75) {
                                        votes[0] += 1;
                                    }

                                    else {
                                        if (x[6] <= 6.545000076293945) {
                                            votes[1] += 1;
                                        }

                                        else {
                                            if (x[16] <= -0.03000000026077032) {
                                                votes[0] += 1;
                                            }

                                            else {
                                                votes[1] += 1;
                                            }
                                        }
                                    }
                                }
                            }

                            else {
                                if (x[13] <= 9.464999675750732) {
                                    votes[0] += 1;
                                }

                                else {
                                    votes[1] += 1;
                                }
                            }
                        }

                        else {
                            votes[0] += 1;
                        }

                        // tree #53
                        if (x[2] <= 4.244999885559082) {
                            if (x[13] <= 9.365000247955322) {
                                if (x[2] <= 3.5199999809265137) {
                                    votes[0] += 1;
                                }

                                else {
                                    votes[1] += 1;
                                }
                            }

                            else {
                                if (x[7] <= 0.7200000286102295) {
                                    votes[0] += 1;
                                }

                                else {
                                    votes[1] += 1;
                                }
                            }
                        }

                        else {
                            if (x[0] <= 2.1649999618530273) {
                                votes[1] += 1;
                            }

                            else {
                                if (x[2] <= 4.559999942779541) {
                                    if (x[17] <= 0.02500000037252903) {
                                        votes[0] += 1;
                                    }

                                    else {
                                        votes[1] += 1;
                                    }
                                }

                                else {
                                    votes[0] += 1;
                                }
                            }
                        }

                        // tree #54
                        if (x[8] <= 1.199999988079071) {
                            if (x[6] <= 4.829999923706055) {
                                if (x[3] <= -1.4200000166893005) {
                                    votes[0] += 1;
                                }

                                else {
                                    if (x[8] <= -1.5999999642372131) {
                                        votes[1] += 1;
                                    }

                                    else {
                                        votes[0] += 1;
                                    }
                                }
                            }

                            else {
                                if (x[3] <= 1.324999988079071) {
                                    votes[1] += 1;
                                }

                                else {
                                    if (x[16] <= 0.12000000476837158) {
                                        votes[0] += 1;
                                    }

                                    else {
                                        votes[1] += 1;
                                    }
                                }
                            }
                        }

                        else {
                            votes[0] += 1;
                        }

                        // tree #55
                        if (x[1] <= 4.650000095367432) {
                            if (x[4] <= -0.5949999988079071) {
                                if (x[12] <= 0.7750000059604645) {
                                    votes[1] += 1;
                                }

                                else {
                                    votes[0] += 1;
                                }
                            }

                            else {
                                if (x[5] <= -1.1849999725818634) {
                                    if (x[11] <= 0.6100000143051147) {
                                        votes[1] += 1;
                                    }

                                    else {
                                        votes[0] += 1;
                                    }
                                }

                                else {
                                    votes[0] += 1;
                                }
                            }
                        }

                        else {
                            if (x[12] <= -1.0800000131130219) {
                                if (x[14] <= -2.0300000309944153) {
                                    votes[1] += 1;
                                }

                                else {
                                    votes[0] += 1;
                                }
                            }

                            else {
                                if (x[4] <= -0.41499999165534973) {
                                    votes[0] += 1;
                                }

                                else {
                                    if (x[6] <= 4.240000009536743) {
                                        if (x[16] <= -0.2400000048801303) {
                                            votes[1] += 1;
                                        }

                                        else {
                                            votes[0] += 1;
                                        }
                                    }

                                    else {
                                        votes[1] += 1;
                                    }
                                }
                            }
                        }

                        // tree #56
                        if (x[1] <= 4.5350000858306885) {
                            if (x[8] <= -2.7050000429153442) {
                                votes[1] += 1;
                            }

                            else {
                                votes[0] += 1;
                            }
                        }

                        else {
                            if (x[12] <= -0.9449999928474426) {
                                votes[0] += 1;
                            }

                            else {
                                if (x[0] <= 6.045000076293945) {
                                    votes[1] += 1;
                                }

                                else {
                                    votes[0] += 1;
                                }
                            }
                        }

                        // tree #57
                        if (x[8] <= 1.1899999976158142) {
                            if (x[1] <= 2.8200000524520874) {
                                votes[0] += 1;
                            }

                            else {
                                if (x[14] <= 0.6150000095367432) {
                                    if (x[13] <= 9.139999866485596) {
                                        if (x[10] <= -0.27000000327825546) {
                                            votes[1] += 1;
                                        }

                                        else {
                                            votes[0] += 1;
                                        }
                                    }

                                    else {
                                        if (x[2] <= 4.0299999713897705) {
                                            votes[1] += 1;
                                        }

                                        else {
                                            if (x[6] <= 9.124999761581421) {
                                                votes[1] += 1;
                                            }

                                            else {
                                                votes[0] += 1;
                                            }
                                        }
                                    }
                                }

                                else {
                                    votes[0] += 1;
                                }
                            }
                        }

                        else {
                            votes[0] += 1;
                        }

                        // tree #58
                        if (x[2] <= 4.400000095367432) {
                            if (x[2] <= -2.8850000500679016) {
                                votes[0] += 1;
                            }

                            else {
                                if (x[6] <= 4.240000009536743) {
                                    votes[0] += 1;
                                }

                                else {
                                    if (x[10] <= 0.4099999964237213) {
                                        if (x[7] <= 1.159999966621399) {
                                            votes[0] += 1;
                                        }

                                        else {
                                            if (x[10] <= 0.3449999988079071) {
                                                votes[1] += 1;
                                            }

                                            else {
                                                if (x[15] <= -0.0800000000745058) {
                                                    votes[1] += 1;
                                                }

                                                else {
                                                    votes[0] += 1;
                                                }
                                            }
                                        }
                                    }

                                    else {
                                        votes[0] += 1;
                                    }
                                }
                            }
                        }

                        else {
                            if (x[1] <= 4.960000038146973) {
                                votes[0] += 1;
                            }

                            else {
                                if (x[12] <= 0.2800000309944153) {
                                    votes[0] += 1;
                                }

                                else {
                                    votes[1] += 1;
                                }
                            }
                        }

                        // tree #59
                        if (x[1] <= 4.650000095367432) {
                            votes[0] += 1;
                        }

                        else {
